0.000000000000000000
-0.000010910228093576
0.000036917504574927
0.000044441008028680
-0.000229222483699751
0.000141804156497094
0.000437396429965885
-0.000802947937964513
-0.000079341894295154
0.001661912753588397
-0.001504651745756294
-0.001506636317031634
0.004043837139892111
-0.001302660739924866
-0.005380372992783612
0.007055593406785722
0.001950293642278943
-0.012642696104009530
0.008481220797835230
0.011399981506330885
-0.022985463852058581
0.003644123731209396
0.031373425469686224
-0.034313953319635174
-0.017427912361498814
0.073509450866690904
-0.043256971807222398
-0.106869305239519805
0.294534390782660693
0.619996515654937186
0.294534390782660693
-0.106869305239519805
-0.043256971807222398
0.073509450866690904
-0.017427912361498810
-0.034313953319635188
0.031373425469686238
0.003644123731209396
-0.022985463852058588
0.011399981506330894
0.008481220797835231
-0.012642696104009537
0.001950293642278943
0.007055593406785728
-0.005380372992783619
-0.001302660739924867
0.004043837139892116
-0.001506636317031635
-0.001504651745756293
0.001661912753588398
-0.000079341894295154
-0.000802947937964513
0.000437396429965884
0.000141804156497094
-0.000229222483699751
0.000044441008028680
0.000036917504574927
-0.000010910228093577
0.000000000000000000