0.0000377153726410751
0.00003686059094567588
0.000042410524839573076
0.00003733597443477717
0.000019675593365645474
-0.000008470997937021793
-0.000040536223071995364
-0.00006667951642166946
-0.0000765594246806862
-0.00006299777606682524
-0.00002536121510491935
0.000028667732384936458
0.00008394798750817967
0.00012163916293494258
0.00012509546436762634
0.00008618539088353821
0.000009872563332134695
-0.00008496241967243818
-0.00016946352533784995
-0.00021297178283922867
-0.00019334444745872092
-0.00010612079474923702
0.00003085931289870244
0.00017977057202636954
0.00029245112758362324
0.00032517004495935173
0.00025427514342268675
0.00008740053239262378
-0.0001342874655074936
-0.0003449576464997922
-0.0004727147918465411
-0.0004629898600236106
-0.0002994424067437483
-0.000014862540924110248
0.0003129945168307873
0.0005813341064016094
0.0006933781184575916
0.0005915250945874678
0.0002817257482187024
-0.00016031567956624113
-0.0006054931943066482
-0.0009075492978481212
-0.0009495572539242302
-0.0006862941101522592
-0.0001678571654915574
0.0004656063327169506
0.0010197019687697973
0.00130373053201056
0.0011940508781192573
0.000682427261712017
-0.00010837489845842412
-0.0009505140342488958
-0.001574563696351918
-0.0017534061656450984
-0.0013815174623987938
-0.0005221341323378727
0.0005954701303732282
0.0016340695849945464
0.002247653731958074
0.0021935571447773018
0.0014222750354996089
0.00011293844932400793
-0.0013624742877517873
-0.0025413391983157936
-0.0030121870058443558
-0.0025536564273711134
-0.0012248658240770827
0.0006269247736557382
0.0024516493543817355
0.0036557762218618712
0.003790781150949615
0.0027122557856783915
0.0006552381785989975
-0.0018065022734049562
-0.003914648727079757
-0.004954504321703822
-0.004490147340565491
-0.0025311460545469774
0.00042915545753613573
0.003527981891005967
0.005777098498987776
0.006369748573573081
0.004957567845685487
0.001805792978109532
-0.0022342011247641924
-0.005943073104283887
-0.008090213760463342
-0.007827896762784217
-0.005000594786320269
-0.00026293301475948343
0.005049393588589976
0.009278452359104043
0.010941196581068537
0.009221351373134921
0.004300535697107081
-0.0025915583901780287
-0.009452183031357374
-0.014053516717035785
-0.014621959256105698
-0.010452728884399833
-0.0022639101245759807
0.007846760506252404
0.016873630606305152
0.021710457698950376
0.020092500584003577
0.011413732140417654
-0.0028292430231557156
-0.019132252417833118
-0.03264678154367968
-0.03828647911827642
-0.032020693743868636
-0.012029855028268735
0.020588291563228
0.06177404324685948
0.10517526198811006
0.14340335075301747
0.16959403046475616
0.17890558592637035
0.16959403046475616
0.14340335075301747
0.10517526198811006
0.06177404324685948
0.020588291563228
-0.012029855028268735
-0.032020693743868636
-0.03828647911827642
-0.03264678154367968
-0.019132252417833118
-0.0028292430231557156
0.011413732140417654
0.020092500584003577
0.021710457698950376
0.016873630606305152
0.007846760506252404
-0.0022639101245759807
-0.010452728884399833
-0.014621959256105698
-0.014053516717035785
-0.009452183031357374
-0.0025915583901780287
0.004300535697107081
0.009221351373134921
0.010941196581068537
0.009278452359104043
0.005049393588589976
-0.00026293301475948343
-0.005000594786320269
-0.007827896762784217
-0.008090213760463342
-0.005943073104283887
-0.0022342011247641924
0.001805792978109532
0.004957567845685487
0.006369748573573081
0.005777098498987776
0.003527981891005967
0.00042915545753613573
-0.0025311460545469774
-0.004490147340565491
-0.004954504321703822
-0.003914648727079757
-0.0018065022734049562
0.0006552381785989975
0.0027122557856783915
0.003790781150949615
0.0036557762218618712
0.0024516493543817355
0.0006269247736557382
-0.0012248658240770827
-0.0025536564273711134
-0.0030121870058443558
-0.0025413391983157936
-0.0013624742877517873
0.00011293844932400793
0.0014222750354996089
0.0021935571447773018
0.002247653731958074
0.0016340695849945464
0.0005954701303732282
-0.0005221341323378727
-0.0013815174623987938
-0.0017534061656450984
-0.001574563696351918
-0.0009505140342488958
-0.00010837489845842412
0.000682427261712017
0.0011940508781192573
0.00130373053201056
0.0010197019687697973
0.0004656063327169506
-0.0001678571654915574
-0.0006862941101522592
-0.0009495572539242302
-0.0009075492978481212
-0.0006054931943066482
-0.00016031567956624113
0.0002817257482187024
0.0005915250945874678
0.0006933781184575916
0.0005813341064016094
0.0003129945168307873
-0.000014862540924110248
-0.0002994424067437483
-0.0004629898600236106
-0.0004727147918465411
-0.0003449576464997922
-0.0001342874655074936
0.00008740053239262378
0.00025427514342268675
0.00032517004495935173
0.00029245112758362324
0.00017977057202636954
0.00003085931289870244
-0.00010612079474923702
-0.00019334444745872092
-0.00021297178283922867
-0.00016946352533784995
-0.00008496241967243818
0.000009872563332134695
0.00008618539088353821
0.00012509546436762634
0.00012163916293494258
0.00008394798750817967
0.000028667732384936458
-0.00002536121510491935
-0.00006299777606682524
-0.0000765594246806862
-0.00006667951642166946
-0.000040536223071995364
-0.000008470997937021793
0.000019675593365645474
0.00003733597443477717
0.000042410524839573076
0.00003686059094567588
0.0000377153726410751
