0.000000000000000000
0.000007741876021522
0.000019947972661456
0.000000000000000000
-0.000088484621400880
-0.000237722281082144
-0.000365598901015227
-0.000329832686113797
0.000000000000000000
0.000632906100595655
0.001366345105969121
0.001788899752929662
0.001424678050907425
-0.000000000000000002
-0.002274897432369447
-0.004576089008266280
-0.005637517912507506
-0.004258354818263746
0.000000000000000003
0.006238138904214264
0.012124605902048115
0.014514181097011357
0.010715823620913804
-0.000000000000000005
-0.015301699043108380
-0.029731545872003731
-0.035977565046600206
-0.027250111663218307
0.000000000000000007
0.044066314013346097
0.097586907671928000
0.149133301432447574
0.186407583126474818
0.200004089316961675
0.186407583126474818
0.149133301432447629
0.097586907671928014
0.044066314013346097
0.000000000000000007
-0.027250111663218318
-0.035977565046600192
-0.029731545872003738
-0.015301699043108378
-0.000000000000000005
0.010715823620913809
0.014514181097011357
0.012124605902048119
0.006238138904214266
0.000000000000000003
-0.004258354818263748
-0.005637517912507506
-0.004576089008266285
-0.002274897432369446
-0.000000000000000002
0.001424678050907426
0.001788899752929662
0.001366345105969121
0.000632906100595656
0.000000000000000000
-0.000329832686113798
-0.000365598901015229
-0.000237722281082145
-0.000088484621400880
0.000000000000000000
0.000019947972661457
0.000007741876021523
0.000000000000000000