0.003077507292576588
0.0011117297486932997
-0.00533016875949713
-0.00006652407404843488
0.004749400263903654
0.0038093295305040922
-0.006830703219073057
-0.006674121666725155
0.006546680681076068
0.011799819859228443
-0.005261470914162357
-0.017560496951289646
0.0010399076331204155
0.024290370336453506
0.006812935620559314
-0.031093222851880542
-0.02042762411930543
0.03745058299050936
0.044055234306168936
-0.042591300656463105
-0.09360562569928207
0.04595801878847091
0.31401362942163463
0.4528747467752534
0.31401362942163463
0.04595801878847091
-0.09360562569928207
-0.042591300656463105
0.044055234306168936
0.03745058299050936
-0.02042762411930543
-0.031093222851880542
0.006812935620559314
0.024290370336453506
0.0010399076331204155
-0.017560496951289646
-0.005261470914162357
0.011799819859228443
0.006546680681076068
-0.006674121666725155
-0.006830703219073057
0.0038093295305040922
0.004749400263903654
-0.00006652407404843488
-0.00533016875949713
0.0011117297486932997
0.003077507292576588
