0.000483453019268102
-0.000000000000000001
-0.000577622798583425
-0.001094433343909418
-0.001316653869662804
-0.000992895648606092
0.000000000000000001
0.001490674298347418
0.002939930829479684
0.003560704783606081
0.002646609802277267
-0.000000000000000003
-0.003749123169872504
-0.007151929277613168
-0.008386477627803779
-0.006049864174869907
0.000000000000000004
0.008157993487561027
0.015279549467374122
0.017675908704374580
0.012646702799170228
-0.000000000000000006
-0.017101231533321902
-0.032468807624358477
-0.038497398533104556
-0.028648707461908812
0.000000000000000007
0.045088548451548083
0.098908245481145601
0.150132541885070386
0.186895906340835749
0.200256751427113189
0.186895906340835749
0.150132541885070386
0.098908245481145601
0.045088548451548083
0.000000000000000007
-0.028648707461908816
-0.038497398533104563
-0.032468807624358477
-0.017101231533321902
-0.000000000000000006
0.012646702799170228
0.017675908704374584
0.015279549467374134
0.008157993487561029
0.000000000000000004
-0.006049864174869905
-0.008386477627803779
-0.007151929277613172
-0.003749123169872504
-0.000000000000000003
0.002646609802277267
0.003560704783606084
0.002939930829479684
0.001490674298347418
0.000000000000000001
-0.000992895648606093
-0.001316653869662804
-0.001094433343909419
-0.000577622798583426
-0.000000000000000001
0.000483453019268102